<?xml version="1.0"?>
<opencv_storage>
<cascade>
  <stageType>BOOST</stageType>
  <featureType>HAAR</featureType>
  <height>24</height>
  <width>24</width>
  <stageParams>
    <boostType>GAB</boostType>
    <minHitRate>9.9500000476837158e-01</minHitRate>
    <maxFalseAlarm>5.0000000000000000e-01</maxFalseAlarm>
    <weightTrimRate>9.4999999999999996e-01</weightTrimRate>
    <maxDepth>1</maxDepth>
    <maxWeakCount>100</maxWeakCount></stageParams>
  <featureParams>
    <maxCatCount>0</maxCatCount>
    <featSize>1</featSize>
    <mode>BASIC</mode></featureParams>
  <stageNum>20</stageNum>
  <stages>
    <!-- stage 0 -->
    <_>
      <maxWeakCount>3</maxWeakCount>
      <stageThreshold>-9.1777950525283813e-01</stageThreshold>
      <weakClassifiers>
        <_>
          <internalNodes>
            0 -1 38 4.5224174857139587e-02</internalNodes>
          <leafValues>
            -9.3406593799591064e-01 8.2733815908432007e-01</leafValues></_>
        <_>
          <internalNodes>
            0 -1 7 5.0746306777000427e-02</internalNodes>
          <leafValues>
            -7.0279300212860107e-01 9.1442579030990601e-01</leafValues></_>
        <_>
          <internalNodes>
            0 -1 98 -1.8985065398737788e-03</internalNodes>
          <leafValues>
            -8.6388677358627319e-01 7.1907943487167358e-01</leafValues></_></weakClassifiers></_>
    <!-- stage 1 -->
    <_>
      <maxWeakCount>4</maxWeakCount>
      <stageThreshold>-1.5527918338775635e+00</stageThreshold>
      <weakClassifiers>
        <_>
          <internalNodes>
            0 -1 10 6.5230615437030792e-02</internalNodes>
          <leafValues>
            -7.1171170473098755e-01 9.1596639156341553e-01</leafValues></_>
        <_>
          <internalNodes>
            0 -1 14 6.0321845114231110e-02</internalNodes>
          <leafValues>
            -8.7559413909912109e-01 7.5829130411148071e-01</leafValues></_>
        <_>
          <internalNodes>
            0 -1 74 -4.7125078737735748e-02</internalNodes>
          <leafValues>
            9.4979065656661987e-01 -5.7709258794784546e-01</leafValues></_>
        <_>
          <internalNodes>
            0 -1 39 -9.2512473464012146e-02</internalNodes>
          <leafValues>
            6.1160653829574585e-01 -7.9357492923736572e-01</leafValues></_></weakClassifiers></_>
    <!-- stage 2 -->
    <_>
      <maxWeakCount>3</maxWeakCount>
      <stageThreshold>-6.3474369049072266e-01</stageThreshold>
      <weakClassifiers>
        <_>
          <internalNodes>
            0 -1 21 -6.6291749477386475e-02</internalNodes>
          <leafValues>
            8.2812500000000000e-01 -7.4509805440902710e-01</leafValues></_>
        <_>
          <internalNodes>
            0 -1 9 1.0607895255088806e-01</internalNodes>
          <leafValues>
            -5.4697638750076294e-01 9.0876746177673340e-01</leafValues></_>
        <_>
          <internalNodes>
            0 -1 69 -3.8964886218309402e-02</internalNodes>
          <leafValues>
            7.2433936595916748e-01 -7.9841315746307373e-01</leafValues></_></weakClassifiers></_>
    <!-- stage 3 -->
    <_>
      <maxWeakCount>5</maxWeakCount>
      <stageThreshold>-4.3591207265853882e-01</stageThreshold>
      <weakClassifiers>
        <_>
          <internalNodes>
            0 -1 16 3.0191682279109955e-02</internalNodes>
          <leafValues>
            -8.5714286565780640e-01 6.9863015413284302e-01</leafValues></_>
        <_>
          <internalNodes>
            0 -1 75 -3.0643209815025330e-02</internalNodes>
          <leafValues>
            8.2112991809844971e-01 -5.7070916891098022e-01</leafValues></_>
        <_>
          <internalNodes>
            0 -1 23 1.2685477733612061e-02</internalNodes>
          <leafValues>
            -5.5264782905578613e-01 7.1088397502899170e-01</leafValues></_>
        <_>
          <internalNodes>
            0 -1 32 -2.4487633258104324e-02</internalNodes>
          <leafValues>
            7.6601660251617432e-01 -5.1542448997497559e-01</leafValues></_>
        <_>
          <internalNodes>
            0 -1 57 -2.8338881675153971e-03</internalNodes>
          <leafValues>
            7.9648047685623169e-01 -5.6984776258468628e-01</leafValues></_></weakClassifiers></_>
    <!-- stage 4 -->
    <_>
      <maxWeakCount>4</maxWeakCount>
      <stageThreshold>-3.3438846468925476e-01</stageThreshold>
      <weakClassifiers>
        <_>
          <internalNodes>
            0 -1 11 3.3339366316795349e-02</internalNodes>
          <leafValues>
            -8.1609195470809937e-01 7.0629370212554932e-01</leafValues></_>
        <_>
          <internalNodes>
            0 -1 80 -2.2290654014796019e-03</internalNodes>
          <leafValues>
            7.0369642972946167e-01 -5.7047718763351440e-01</leafValues></_>
        <_>
          <internalNodes>
            0 -1 56 -7.1164488326758146e-04</internalNodes>
          <leafValues>
            4.7103953361511230e-01 -8.0797576904296875e-01</leafValues></_>
        <_>
          <internalNodes>
            0 -1 19 -5.5299755185842514e-03</internalNodes>
          <leafValues>
            6.0730284452438354e-01 -6.9303244352340698e-01</leafValues></_></weakClassifiers></_>
    <!-- stage 5 -->
    <_>
      <maxWeakCount>4</maxWeakCount>
      <stageThreshold>-3.1736373901367188e-01</stageThreshold>
      <weakClassifiers>
        <_>
          <internalNodes>
            0 -1 35 -4.6123512089252472e-02</internalNodes>
          <leafValues>
            7.0802921056747437e-01 -7.2043013572692871e-01</leafValues></_>
        <_>
          <internalNodes>
            0 -1 78 1.9749402999877930e-02</internalNodes>
          <leafValues>
            -4.4502437114715576e-01 8.3928519487380981e-01</leafValues></_>
        <_>
          <internalNodes>
            0 -1 85 -7.7846192289143801e-04</internalNodes>
          <leafValues>
            -8.8509786128997803e-01 4.2611354589462280e-01</leafValues></_>
        <_>
          <internalNodes>
            0 -1 60 -4.9205748364329338e-03</internalNodes>
          <leafValues>
            4.2197719216346741e-01 -8.8525295257568359e-01</leafValues></_></weakClassifiers></_>
    <!-- stage 6 -->
    <_>
      <maxWeakCount>5</maxWeakCount>
      <stageThreshold>-2.1018256247043610e-01</stageThreshold>
      <weakClassifiers>
        <_>
          <internalNodes>
            0 -1 8 3.9716929197311401e-02</internalNodes>
          <leafValues>
            -8.1333333253860474e-01 5.8709675073623657e-01</leafValues></_>
        <_>
          <internalNodes>
            0 -1 73 4.4623203575611115e-02</internalNodes>
          <leafValues>
            -4.3835502862930298e-01 8.7066864967346191e-01</leafValues></_>
        <_>
          <internalNodes>
            0 -1 17 7.9718172550201416e-02</internalNodes>
          <leafValues>
            -3.2147330045700073e-01 9.3174988031387329e-01</leafValues></_>
        <_>
          <internalNodes>
            0 -1 86 2.6812916621565819e-03</internalNodes>
          <leafValues>
            4.4635003805160522e-01 -7.7932578325271606e-01</leafValues></_>
        <_>
          <internalNodes>
            0 -1 62 -1.8671803176403046e-02</internalNodes>
          <leafValues>
            9.1662907600402832e-01 -3.7369513511657715e-01</leafValues></_></weakClassifiers></_>
    <!-- stage 7 -->
    <_>
      <maxWeakCount>4</maxWeakCount>
      <stageThreshold>-2.3186907172203064e-01</stageThreshold>
      <weakClassifiers>
        <_>
          <internalNodes>
            0 -1 63 3.8355842232704163e-02</internalNodes>
          <leafValues>
            -4.4999998807907104e-01 7.6363635063171387e-01</leafValues></_>
        <_>
          <internalNodes>
            0 -1 51 2.5362610816955566e-02</internalNodes>
          <leafValues>
            -9.3178814649581909e-01 4.2002987861633301e-01</leafValues></_>
        <_>
          <internalNodes>
            0 -1 47 -1.2136986479163170e-02</internalNodes>
          <leafValues>
            7.8646892309188843e-01 -4.4275581836700439e-01</leafValues></_>
        <_>
          <internalNodes>
            0 -1 89 -3.8853264413774014e-04</internalNodes>
          <leafValues>
            -8.8694256544113159e-01 3.6345019936561584e-01</leafValues></_></weakClassifiers></_>
    <!-- stage 8 -->
    <_>
      <maxWeakCount>5</maxWeakCount>
      <stageThreshold>-3.0679553747177124e-01</stageThreshold>
      <weakClassifiers>
        <_>
          <internalNodes>
            0 -1 76 3.1681105494499207e-02</internalNodes>
          <leafValues>
            -4.5454546809196472e-01 6.6666668653488159e-01</leafValues></_>
        <_>
          <internalNodes>
            0 -1 59 9.4895943999290466e-02</internalNodes>
          <leafValues>
            -2.6575404405593872e-01 9.2315703630447388e-01</leafValues></_>
        <_>
          <internalNodes>
            0 -1 72 -2.2028934210538864e-02</internalNodes>
          <leafValues>
            9.7632831335067749e-01 -2.3087954521179199e-01</leafValues></_>
        <_>
          <internalNodes>
            0 -1 77 1.0724493768066168e-03</internalNodes>
          <leafValues>
            4.0371611714363098e-01 -8.5279428958892822e-01</leafValues></_>
        <_>
          <internalNodes>
            0 -1 93 -4.3301228433847427e-03</internalNodes>
          <leafValues>
            -9.5235818624496460e-01 2.8996998071670532e-01</leafValues></_></weakClassifiers></_>
    <!-- stage 9 -->
    <_>
      <maxWeakCount>6</maxWeakCount>
      <stageThreshold>-3.8959506154060364e-01</stageThreshold>
      <weakClassifiers>
        <_>
          <internalNodes>
            0 -1 33 5.1660813391208649e-02</internalNodes>
          <leafValues>
            -3.1468531489372253e-01 8.6206895112991333e-01</leafValues></_>
        <_>
          <internalNodes>
            0 -1 79 -1.6274820081889629e-03</internalNodes>
          <leafValues>
            4.6733003854751587e-01 -7.0969200134277344e-01</leafValues></_>
        <_>
          <internalNodes>
            0 -1 18 3.5710766911506653e-02</internalNodes>
          <leafValues>
            -3.3433112502098083e-01 8.8695853948593140e-01</leafValues></_>
        <_>
          <internalNodes>
            0 -1 95 -1.8384936265647411e-04</internalNodes>
          <leafValues>
            -7.9478144645690918e-01 3.8551843166351318e-01</leafValues></_>
        <_>
          <internalNodes>
            0 -1 88 -7.4072030838578939e-04</internalNodes>
          <leafValues>
            -8.7360161542892456e-01 3.4871575236320496e-01</leafValues></_>
        <_>
          <internalNodes>
            0 -1 94 6.3074741046875715e-04</internalNodes>
          <leafValues>
            2.8017452359199524e-01 -9.3636322021484375e-01</leafValues></_></weakClassifiers></_>
    <!-- stage 10 -->
    <_>
      <maxWeakCount>5</maxWeakCount>
      <stageThreshold>-4.6443828940391541e-01</stageThreshold>
      <weakClassifiers>
        <_>
          <internalNodes>
            0 -1 67 2.1153103560209274e-02</internalNodes>
          <leafValues>
            -5.5319148302078247e-01 6.0294115543365479e-01</leafValues></_>
        <_>
          <internalNodes>
            0 -1 26 6.4135715365409851e-02</internalNodes>
          <leafValues>
            -5.9867262840270996e-01 6.3275486230850220e-01</leafValues></_>
        <_>
          <internalNodes>
            0 -1 0 9.3911243602633476e-03</internalNodes>
          <leafValues>
            3.2411244511604309e-01 -9.0527331829071045e-01</leafValues></_>
        <_>
          <internalNodes>
            0 -1 58 -2.7640029788017273e-02</internalNodes>
          <leafValues>
            7.7800780534744263e-01 -4.0955752134323120e-01</leafValues></_>
        <_>
          <internalNodes>
            0 -1 54 -2.7785021811723709e-03</internalNodes>
          <leafValues>
            7.7287089824676514e-01 -3.2204061746597290e-01</leafValues></_></weakClassifiers></_>
    <!-- stage 11 -->
    <_>
      <maxWeakCount>6</maxWeakCount>
      <stageThreshold>-2.6934841275215149e-01</stageThreshold>
      <weakClassifiers>
        <_>
          <internalNodes>
            0 -1 30 -5.0864659249782562e-02</internalNodes>
          <leafValues>
            6.3492065668106079e-01 -4.8076921701431274e-01</leafValues></_>
        <_>
          <internalNodes>
            0 -1 2 7.4977166950702667e-02</internalNodes>
          <leafValues>
            -8.6352115869522095e-01 3.3622926473617554e-01</leafValues></_>
        <_>
          <internalNodes>
            0 -1 55 -7.4762810254469514e-04</internalNodes>
          <leafValues>
            5.7707065343856812e-01 -5.9380543231964111e-01</leafValues></_>
        <_>
          <internalNodes>
            0 -1 46 -2.4967379868030548e-03</internalNodes>
          <leafValues>
            3.5234859585762024e-01 -6.6577297449111938e-01</leafValues></_>
        <_>
          <internalNodes>
            0 -1 52 -1.5832541976124048e-03</internalNodes>
          <leafValues>
            7.0549422502517700e-01 -4.3792927265167236e-01</leafValues></_>
        <_>
          <internalNodes>
            0 -1 82 -1.6849886626005173e-02</internalNodes>
          <leafValues>
            5.5457764863967896e-01 -5.1689267158508301e-01</leafValues></_></weakClassifiers></_>
    <!-- stage 12 -->
    <_>
      <maxWeakCount>6</maxWeakCount>
      <stageThreshold>-9.8066157102584839e-01</stageThreshold>
      <weakClassifiers>
        <_>
          <internalNodes>
            0 -1 43 -7.4652992188930511e-03</internalNodes>
          <leafValues>
            7.4545454978942871e-01 -4.3333333730697632e-01</leafValues></_>
        <_>
          <internalNodes>
            0 -1 4 -1.1601002886891365e-02</internalNodes>
          <leafValues>
            -8.3653068542480469e-01 4.3084257841110229e-01</leafValues></_>
        <_>
          <internalNodes>
            0 -1 34 -2.4071879684925079e-02</internalNodes>
          <leafValues>
            4.2156770825386047e-01 -7.1271371841430664e-01</leafValues></_>
        <_>
          <internalNodes>
            0 -1 65 8.7752854451537132e-03</internalNodes>
          <leafValues>
            -3.3531427383422852e-01 9.6594125032424927e-01</leafValues></_>
        <_>
          <internalNodes>
            0 -1 45 -2.9463306069374084e-02</internalNodes>
          <leafValues>
            8.1485325098037720e-01 -3.5146239399909973e-01</leafValues></_>
        <_>
          <internalNodes>
            0 -1 12 1.6056993976235390e-02</internalNodes>
          <leafValues>
            -8.5482561588287354e-01 4.2131954431533813e-01</leafValues></_></weakClassifiers></_>
    <!-- stage 13 -->
    <_>
      <maxWeakCount>7</maxWeakCount>
      <stageThreshold>-7.2407037019729614e-01</stageThreshold>
      <weakClassifiers>
        <_>
          <internalNodes>
            0 -1 63 4.8715822398662567e-02</internalNodes>
          <leafValues>
            -3.4959349036216736e-01 6.8224298954010010e-01</leafValues></_>
        <_>
          <internalNodes>
            0 -1 20 -2.2840891033411026e-02</internalNodes>
          <leafValues>
            3.4103319048881531e-01 -8.2010924816131592e-01</leafValues></_>
        <_>
          <internalNodes>
            0 -1 91 4.0388078195974231e-04</internalNodes>
          <leafValues>
            3.3919519186019897e-01 -7.6682758331298828e-01</leafValues></_>
        <_>
          <internalNodes>
            0 -1 41 -6.3326791860163212e-03</internalNodes>
          <leafValues>
            8.2633846998214722e-01 -4.1369816660881042e-01</leafValues></_>
        <_>
          <internalNodes>
            0 -1 96 -5.8898061979562044e-04</internalNodes>
          <leafValues>
            -9.2471677064895630e-01 3.3445054292678833e-01</leafValues></_>
        <_>
          <internalNodes>
            0 -1 40 4.9635499715805054e-02</internalNodes>
          <leafValues>
            -3.1327825784683228e-01 9.4902557134628296e-01</leafValues></_>
        <_>
          <internalNodes>
            0 -1 29 -3.2000377541407943e-04</internalNodes>
          <leafValues>
            -5.6434363126754761e-01 4.9896305799484253e-01</leafValues></_></weakClassifiers></_>
    <!-- stage 14 -->
    <_>
      <maxWeakCount>5</maxWeakCount>
      <stageThreshold>-3.8582649827003479e-01</stageThreshold>
      <weakClassifiers>
        <_>
          <internalNodes>
            0 -1 61 -3.2965862192213535e-03</internalNodes>
          <leafValues>
            -8.4615385532379150e-01 4.1573032736778259e-01</leafValues></_>
        <_>
          <internalNodes>
            0 -1 42 -2.9669674113392830e-02</internalNodes>
          <leafValues>
            5.7358211278915405e-01 -4.8174256086349487e-01</leafValues></_>
        <_>
          <internalNodes>
            0 -1 36 -3.7773137446492910e-03</internalNodes>
          <leafValues>
            -9.7704029083251953e-01 2.4871268868446350e-01</leafValues></_>
        <_>
          <internalNodes>
            0 -1 1 1.5396196395158768e-03</internalNodes>
          <leafValues>
            -7.3173475265502930e-01 3.4304499626159668e-01</leafValues></_>
        <_>
          <internalNodes>
            0 -1 50 -1.7358010518364608e-04</internalNodes>
          <leafValues>
            3.5031226277351379e-01 -6.5006500482559204e-01</leafValues></_></weakClassifiers></_>
    <!-- stage 15 -->
    <_>
      <maxWeakCount>7</maxWeakCount>
      <stageThreshold>-5.4519182443618774e-01</stageThreshold>
      <weakClassifiers>
        <_>
          <internalNodes>
            0 -1 27 5.6284092366695404e-02</internalNodes>
          <leafValues>
            -4.4642856717109680e-01 6.7796611785888672e-01</leafValues></_>
        <_>
          <internalNodes>
            0 -1 97 -5.1364200189709663e-03</internalNodes>
          <leafValues>
            -8.6561083793640137e-01 3.4632015228271484e-01</leafValues></_>
        <_>
          <internalNodes>
            0 -1 87 1.7627249471843243e-03</internalNodes>
          <leafValues>
            -4.9468791484832764e-01 5.2529090642929077e-01</leafValues></_>
        <_>
          <internalNodes>
            0 -1 68 1.3452440034598112e-03</internalNodes>
          <leafValues>
            -5.1576572656631470e-01 4.4094526767730713e-01</leafValues></_>
        <_>
          <internalNodes>
            0 -1 49 -2.6563233695924282e-03</internalNodes>
          <leafValues>
            3.9090371131896973e-01 -5.6824553012847900e-01</leafValues></_>
        <_>
          <internalNodes>
            0 -1 31 8.3619272336363792e-03</internalNodes>
          <leafValues>
            -5.5489391088485718e-01 4.3279388546943665e-01</leafValues></_>
        <_>
          <internalNodes>
            0 -1 83 8.2945637404918671e-04</internalNodes>
          <leafValues>
            -2.5588908791542053e-01 9.1419738531112671e-01</leafValues></_></weakClassifiers></_>
    <!-- stage 16 -->
    <_>
      <maxWeakCount>5</maxWeakCount>
      <stageThreshold>-1.0692715644836426e+00</stageThreshold>
      <weakClassifiers>
        <_>
          <internalNodes>
            0 -1 44 -4.8705465160310268e-03</internalNodes>
          <leafValues>
            -1. 3.4715026617050171e-01</leafValues></_>
        <_>
          <internalNodes>
            0 -1 71 -5.9915512800216675e-02</internalNodes>
          <leafValues>
            4.0890443325042725e-01 -6.2757581472396851e-01</leafValues></_>
        <_>
          <internalNodes>
            0 -1 3 8.5542444139719009e-03</internalNodes>
          <leafValues>
            3.3865237236022949e-01 -7.8448396921157837e-01</leafValues></_>
        <_>
          <internalNodes>
            0 -1 81 -1.0446195956319571e-03</internalNodes>
          <leafValues>
            -6.6775971651077271e-01 3.9105367660522461e-01</leafValues></_>
        <_>
          <internalNodes>
            0 -1 25 -8.8777150958776474e-03</internalNodes>
          <leafValues>
            5.7971876859664917e-01 -4.5973861217498779e-01</leafValues></_></weakClassifiers></_>
    <!-- stage 17 -->
    <_>
      <maxWeakCount>4</maxWeakCount>
      <stageThreshold>-4.9012082815170288e-01</stageThreshold>
      <weakClassifiers>
        <_>
          <internalNodes>
            0 -1 90 -1.2589590623974800e-02</internalNodes>
          <leafValues>
            -9.1489362716674805e-01 3.9890709519386292e-01</leafValues></_>
        <_>
          <internalNodes>
            0 -1 66 3.3912651240825653e-02</internalNodes>
          <leafValues>
            -4.8785609006881714e-01 5.5187666416168213e-01</leafValues></_>
        <_>
          <internalNodes>
            0 -1 6 -1.5696715563535690e-02</internalNodes>
          <leafValues>
            4.3888190388679504e-01 -5.1354736089706421e-01</leafValues></_>
        <_>
          <internalNodes>
            0 -1 13 -2.8091194108128548e-03</internalNodes>
          <leafValues>
            -8.4005373716354370e-01 2.6538440585136414e-01</leafValues></_></weakClassifiers></_>
    <!-- stage 18 -->
    <_>
      <maxWeakCount>7</maxWeakCount>
      <stageThreshold>-6.0254633426666260e-01</stageThreshold>
      <weakClassifiers>
        <_>
          <internalNodes>
            0 -1 24 5.7366758584976196e-02</internalNodes>
          <leafValues>
            -1.5337423980236053e-01 8.2089549303054810e-01</leafValues></_>
        <_>
          <internalNodes>
            0 -1 37 -7.9853588249534369e-04</internalNodes>
          <leafValues>
            4.0134140849113464e-01 -5.5837124586105347e-01</leafValues></_>
        <_>
          <internalNodes>
            0 -1 84 -3.1208491418510675e-04</internalNodes>
          <leafValues>
            4.3991318345069885e-01 -5.6598496437072754e-01</leafValues></_>
        <_>
          <internalNodes>
            0 -1 28 1.4006797224283218e-02</internalNodes>
          <leafValues>
            -4.8145213723182678e-01 5.3992003202438354e-01</leafValues></_>
        <_>
          <internalNodes>
            0 -1 48 1.7354697920382023e-03</internalNodes>
          <leafValues>
            3.4441146254539490e-01 -6.6569876670837402e-01</leafValues></_>
        <_>
          <internalNodes>
            0 -1 53 -6.1552524566650391e-03</internalNodes>
          <leafValues>
            8.3320361375808716e-01 -2.9587039351463318e-01</leafValues></_>
        <_>
          <internalNodes>
            0 -1 15 1.1352097615599632e-02</internalNodes>
          <leafValues>
            3.0958986282348633e-01 -8.7298965454101562e-01</leafValues></_></weakClassifiers></_>
    <!-- stage 19 -->
    <_>
      <maxWeakCount>5</maxWeakCount>
      <stageThreshold>-5.6775891780853271e-01</stageThreshold>
      <weakClassifiers>
        <_>
          <internalNodes>
            0 -1 5 -1.1977828107774258e-02</internalNodes>
          <leafValues>
            -9.5238095521926880e-01 3.7234041094779968e-01</leafValues></_>
        <_>
          <internalNodes>
            0 -1 64 -1.8337089568376541e-03</internalNodes>
          <leafValues>
            2.9804238677024841e-01 -6.9546926021575928e-01</leafValues></_>
        <_>
          <internalNodes>
            0 -1 70 -2.2174455225467682e-02</internalNodes>
          <leafValues>
            4.8622071743011475e-01 -5.3928095102310181e-01</leafValues></_>
        <_>
          <internalNodes>
            0 -1 22 7.1019254392012954e-04</internalNodes>
          <leafValues>
            -6.4444297552108765e-01 3.7938791513442993e-01</leafValues></_>
        <_>
          <internalNodes>
            0 -1 92 -2.0230477093718946e-04</internalNodes>
          <leafValues>
            -8.6951237916946411e-01 2.4480193853378296e-01</leafValues></_></weakClassifiers></_></stages>
  <features>
    <_>
      <rects>
        <_>
          0 0 2 12 -1.</_>
        <_>
          0 6 2 6 2.</_></rects>
      <tilted>0</tilted></_>
    <_>
      <rects>
        <_>
          0 0 12 6 -1.</_>
        <_>
          0 0 6 3 2.</_>
        <_>
          6 3 6 3 2.</_></rects>
      <tilted>0</tilted></_>
    <_>
      <rects>
        <_>
          0 0 20 12 -1.</_>
        <_>
          0 6 20 6 2.</_></rects>
      <tilted>0</tilted></_>
    <_>
      <rects>
        <_>
          0 2 2 20 -1.</_>
        <_>
          0 12 2 10 2.</_></rects>
      <tilted>0</tilted></_>
    <_>
      <rects>
        <_>
          0 2 4 12 -1.</_>
        <_>
          0 8 4 6 2.</_></rects>
      <tilted>0</tilted></_>
    <_>
      <rects>
        <_>
          0 4 1 18 -1.</_>
        <_>
          0 13 1 9 2.</_></rects>
      <tilted>0</tilted></_>
    <_>
      <rects>
        <_>
          0 5 8 16 -1.</_>
        <_>
          0 5 4 8 2.</_>
        <_>
          4 13 4 8 2.</_></rects>
      <tilted>0</tilted></_>
    <_>
      <rects>
        <_>
          0 6 8 10 -1.</_>
        <_>
          4 6 4 10 2.</_></rects>
      <tilted>0</tilted></_>
    <_>
      <rects>
        <_>
          0 6 8 18 -1.</_>
        <_>
          4 6 4 18 2.</_></rects>
      <tilted>0</tilted></_>
    <_>
      <rects>
        <_>
          0 8 15 9 -1.</_>
        <_>
          5 8 5 9 3.</_></rects>
      <tilted>0</tilted></_>
    <_>
      <rects>
        <_>
          0 9 10 10 -1.</_>
        <_>
          5 9 5 10 2.</_></rects>
      <tilted>0</tilted></_>
    <_>
      <rects>
        <_>
          0 11 10 8 -1.</_>
        <_>
          5 11 5 8 2.</_></rects>
      <tilted>0</tilted></_>
    <_>
      <rects>
        <_>
          0 14 14 9 -1.</_>
        <_>
          7 14 7 9 2.</_></rects>
      <tilted>0</tilted></_>
    <_>
      <rects>
        <_>
          1 21 6 3 -1.</_>
        <_>
          3 21 2 3 3.</_></rects>
      <tilted>0</tilted></_>
    <_>
      <rects>
        <_>
          2 0 16 12 -1.</_>
        <_>
          2 6 16 6 2.</_></rects>
      <tilted>0</tilted></_>
    <_>
      <rects>
        <_>
          2 22 12 2 -1.</_>
        <_>
          8 22 6 2 2.</_></rects>
      <tilted>0</tilted></_>
    <_>
      <rects>
        <_>
          3 1 18 8 -1.</_>
        <_>
          3 5 18 4 2.</_></rects>
      <tilted>0</tilted></_>
    <_>
      <rects>
        <_>
          3 5 9 11 -1.</_>
        <_>
          6 5 3 11 3.</_></rects>
      <tilted>0</tilted></_>
    <_>
      <rects>
        <_>
          3 8 9 3 -1.</_>
        <_>
          6 8 3 3 3.</_></rects>
      <tilted>0</tilted></_>
    <_>
      <rects>
        <_>
          3 12 5 6 -1.</_>
        <_>
          3 15 5 3 2.</_></rects>
      <tilted>0</tilted></_>
    <_>
      <rects>
        <_>
          3 14 11 10 -1.</_>
        <_>
          3 19 11 5 2.</_></rects>
      <tilted>0</tilted></_>
    <_>
      <rects>
        <_>
          3 14 16 10 -1.</_>
        <_>
          3 19 16 5 2.</_></rects>
      <tilted>0</tilted></_>
    <_>
      <rects>
        <_>
          3 17 4 5 -1.</_>
        <_>
          5 17 2 5 2.</_></rects>
      <tilted>0</tilted></_>
    <_>
      <rects>
        <_>
          4 1 4 8 -1.</_>
        <_>
          4 5 4 4 2.</_></rects>
      <tilted>0</tilted></_>
    <_>
      <rects>
        <_>
          4 1 6 12 -1.</_>
        <_>
          4 5 6 4 3.</_></rects>
      <tilted>0</tilted></_>
    <_>
      <rects>
        <_>
          4 1 11 6 -1.</_>
        <_>
          4 3 11 2 3.</_></rects>
      <tilted>0</tilted></_>
    <_>
      <rects>
        <_>
          4 1 16 8 -1.</_>
        <_>
          4 5 16 4 2.</_></rects>
      <tilted>0</tilted></_>
    <_>
      <rects>
        <_>
          4 9 12 12 -1.</_>
        <_>
          4 9 6 6 2.</_>
        <_>
          10 15 6 6 2.</_></rects>
      <tilted>0</tilted></_>
    <_>
      <rects>
        <_>
          4 10 6 4 -1.</_>
        <_>
          6 10 2 4 3.</_></rects>
      <tilted>0</tilted></_>
    <_>
      <rects>
        <_>
          4 19 3 5 -1.</_>
        <_>
          5 19 1 5 3.</_></rects>
      <tilted>0</tilted></_>
    <_>
      <rects>
        <_>
          5 4 12 10 -1.</_>
        <_>
          11 4 6 10 2.</_></rects>
      <tilted>0</tilted></_>
    <_>
      <rects>
        <_>
          5 5 6 7 -1.</_>
        <_>
          7 5 2 7 3.</_></rects>
      <tilted>0</tilted></_>
    <_>
      <rects>
        <_>
          5 8 12 6 -1.</_>
        <_>
          9 8 4 6 3.</_></rects>
      <tilted>0</tilted></_>
    <_>
      <rects>
        <_>
          5 9 8 12 -1.</_>
        <_>
          5 9 4 6 2.</_>
        <_>
          9 15 4 6 2.</_></rects>
      <tilted>0</tilted></_>
    <_>
      <rects>
        <_>
          5 14 7 8 -1.</_>
        <_>
          5 18 7 4 2.</_></rects>
      <tilted>0</tilted></_>
    <_>
      <rects>
        <_>
          5 15 13 8 -1.</_>
        <_>
          5 19 13 4 2.</_></rects>
      <tilted>0</tilted></_>
    <_>
      <rects>
        <_>
          6 0 6 2 -1.</_>
        <_>
          8 0 2 2 3.</_></rects>
      <tilted>0</tilted></_>
    <_>
      <rects>
        <_>
          6 0 16 1 -1.</_>
        <_>
          14 0 8 1 2.</_></rects>
      <tilted>0</tilted></_>
    <_>
      <rects>
        <_>
          6 0 13 18 -1.</_>
        <_>
          6 9 13 9 2.</_></rects>
      <tilted>0</tilted></_>
    <_>
      <rects>
        <_>
          6 1 18 20 -1.</_>
        <_>
          15 1 9 20 2.</_></rects>
      <tilted>0</tilted></_>
    <_>
      <rects>
        <_>
          6 10 8 8 -1.</_>
        <_>
          6 10 4 4 2.</_>
        <_>
          10 14 4 4 2.</_></rects>
      <tilted>0</tilted></_>
    <_>
      <rects>
        <_>
          6 11 4 2 -1.</_>
        <_>
          8 11 2 2 2.</_></rects>
      <tilted>0</tilted></_>
    <_>
      <rects>
        <_>
          6 12 12 3 -1.</_>
        <_>
          10 12 4 3 3.</_></rects>
      <tilted>0</tilted></_>
    <_>
      <rects>
        <_>
          6 13 12 1 -1.</_>
        <_>
          10 13 4 1 3.</_></rects>
      <tilted>0</tilted></_>
    <_>
      <rects>
        <_>
          7 0 12 1 -1.</_>
        <_>
          11 0 4 1 3.</_></rects>
      <tilted>0</tilted></_>
    <_>
      <rects>
        <_>
          7 14 16 9 -1.</_>
        <_>
          7 17 16 3 3.</_></rects>
      <tilted>0</tilted></_>
    <_>
      <rects>
        <_>
          7 18 5 6 -1.</_>
        <_>
          7 21 5 3 2.</_></rects>
      <tilted>0</tilted></_>
    <_>
      <rects>
        <_>
          8 6 6 6 -1.</_>
        <_>
          10 6 2 6 3.</_></rects>
      <tilted>0</tilted></_>
    <_>
      <rects>
        <_>
          9 0 4 6 -1.</_>
        <_>
          9 0 2 3 2.</_>
        <_>
          11 3 2 3 2.</_></rects>
      <tilted>0</tilted></_>
    <_>
      <rects>
        <_>
          9 0 12 6 -1.</_>
        <_>
          13 0 4 6 3.</_></rects>
      <tilted>0</tilted></_>
    <_>
      <rects>
        <_>
          9 0 10 1 -1.</_>
        <_>
          14 0 5 1 2.</_></rects>
      <tilted>0</tilted></_>
    <_>
      <rects>
        <_>
          9 0 15 18 -1.</_>
        <_>
          9 9 15 9 2.</_></rects>
      <tilted>0</tilted></_>
    <_>
      <rects>
        <_>
          9 21 12 2 -1.</_>
        <_>
          13 21 4 2 3.</_></rects>
      <tilted>0</tilted></_>
    <_>
      <rects>
        <_>
          10 3 2 12 -1.</_>
        <_>
          10 3 1 6 2.</_>
        <_>
          11 9 1 6 2.</_></rects>
      <tilted>0</tilted></_>
    <_>
      <rects>
        <_>
          10 9 6 1 -1.</_>
        <_>
          12 9 2 1 3.</_></rects>
      <tilted>0</tilted></_>
    <_>
      <rects>
        <_>
          11 1 6 2 -1.</_>
        <_>
          14 1 3 2 2.</_></rects>
      <tilted>0</tilted></_>
    <_>
      <rects>
        <_>
          11 2 6 4 -1.</_>
        <_>
          14 2 3 4 2.</_></rects>
      <tilted>0</tilted></_>
    <_>
      <rects>
        <_>
          11 3 2 13 -1.</_>
        <_>
          12 3 1 13 2.</_></rects>
      <tilted>0</tilted></_>
    <_>
      <rects>
        <_>
          11 8 6 12 -1.</_>
        <_>
          11 12 6 4 3.</_></rects>
      <tilted>0</tilted></_>
    <_>
      <rects>
        <_>
          11 12 8 12 -1.</_>
        <_>
          11 16 8 4 3.</_></rects>
      <tilted>0</tilted></_>
    <_>
      <rects>
        <_>
          12 0 12 11 -1.</_>
        <_>
          18 0 6 11 2.</_></rects>
      <tilted>0</tilted></_>
    <_>
      <rects>
        <_>
          12 1 9 1 -1.</_>
        <_>
          15 1 3 1 3.</_></rects>
      <tilted>0</tilted></_>
    <_>
      <rects>
        <_>
          12 11 5 9 -1.</_>
        <_>
          12 14 5 3 3.</_></rects>
      <tilted>0</tilted></_>
    <_>
      <rects>
        <_>
          13 10 9 7 -1.</_>
        <_>
          16 10 3 7 3.</_></rects>
      <tilted>0</tilted></_>
    <_>
      <rects>
        <_>
          14 0 10 8 -1.</_>
        <_>
          19 0 5 8 2.</_></rects>
      <tilted>0</tilted></_>
    <_>
      <rects>
        <_>
          14 10 6 7 -1.</_>
        <_>
          17 10 3 7 2.</_></rects>
      <tilted>0</tilted></_>
    <_>
      <rects>
        <_>
          14 16 10 8 -1.</_>
        <_>
          14 16 5 4 2.</_>
        <_>
          19 20 5 4 2.</_></rects>
      <tilted>0</tilted></_>
    <_>
      <rects>
        <_>
          15 14 8 10 -1.</_>
        <_>
          15 14 4 5 2.</_>
        <_>
          19 19 4 5 2.</_></rects>
      <tilted>0</tilted></_>
    <_>
      <rects>
        <_>
          16 3 3 16 -1.</_>
        <_>
          17 3 1 16 3.</_></rects>
      <tilted>0</tilted></_>
    <_>
      <rects>
        <_>
          16 4 8 17 -1.</_>
        <_>
          20 4 4 17 2.</_></rects>
      <tilted>0</tilted></_>
    <_>
      <rects>
        <_>
          16 5 8 12 -1.</_>
        <_>
          16 5 4 6 2.</_>
        <_>
          20 11 4 6 2.</_></rects>
      <tilted>0</tilted></_>
    <_>
      <rects>
        <_>
          16 8 8 10 -1.</_>
        <_>
          20 8 4 10 2.</_></rects>
      <tilted>0</tilted></_>
    <_>
      <rects>
        <_>
          16 10 4 7 -1.</_>
        <_>
          18 10 2 7 2.</_></rects>
      <tilted>0</tilted></_>
    <_>
      <rects>
        <_>
          16 11 8 12 -1.</_>
        <_>
          16 11 4 6 2.</_>
        <_>
          20 17 4 6 2.</_></rects>
      <tilted>0</tilted></_>
    <_>
      <rects>
        <_>
          16 11 8 9 -1.</_>
        <_>
          20 11 4 9 2.</_></rects>
      <tilted>0</tilted></_>
    <_>
      <rects>
        <_>
          16 12 6 8 -1.</_>
        <_>
          19 12 3 8 2.</_></rects>
      <tilted>0</tilted></_>
    <_>
      <rects>
        <_>
          16 13 8 10 -1.</_>
        <_>
          16 13 4 5 2.</_>
        <_>
          20 18 4 5 2.</_></rects>
      <tilted>0</tilted></_>
    <_>
      <rects>
        <_>
          17 2 6 3 -1.</_>
        <_>
          17 3 6 1 3.</_></rects>
      <tilted>0</tilted></_>
    <_>
      <rects>
        <_>
          17 6 3 10 -1.</_>
        <_>
          17 11 3 5 2.</_></rects>
      <tilted>0</tilted></_>
    <_>
      <rects>
        <_>
          17 12 7 12 -1.</_>
        <_>
          17 18 7 6 2.</_></rects>
      <tilted>0</tilted></_>
    <_>
      <rects>
        <_>
          17 15 7 4 -1.</_>
        <_>
          17 17 7 2 2.</_></rects>
      <tilted>0</tilted></_>
    <_>
      <rects>
        <_>
          18 6 6 1 -1.</_>
        <_>
          20 6 2 1 3.</_></rects>
      <tilted>0</tilted></_>
    <_>
      <rects>
        <_>
          18 7 6 11 -1.</_>
        <_>
          20 7 2 11 3.</_></rects>
      <tilted>0</tilted></_>
    <_>
      <rects>
        <_>
          18 13 2 3 -1.</_>
        <_>
          19 13 1 3 2.</_></rects>
      <tilted>0</tilted></_>
    <_>
      <rects>
        <_>
          18 16 4 6 -1.</_>
        <_>
          18 18 4 2 3.</_></rects>
      <tilted>0</tilted></_>
    <_>
      <rects>
        <_>
          19 2 2 3 -1.</_>
        <_>
          19 3 2 1 3.</_></rects>
      <tilted>0</tilted></_>
    <_>
      <rects>
        <_>
          20 1 2 15 -1.</_>
        <_>
          20 6 2 5 3.</_></rects>
      <tilted>0</tilted></_>
    <_>
      <rects>
        <_>
          20 8 4 6 -1.</_>
        <_>
          20 11 4 3 2.</_></rects>
      <tilted>0</tilted></_>
    <_>
      <rects>
        <_>
          21 2 2 5 -1.</_>
        <_>
          22 2 1 5 2.</_></rects>
      <tilted>0</tilted></_>
    <_>
      <rects>
        <_>
          21 5 3 1 -1.</_>
        <_>
          22 5 1 1 3.</_></rects>
      <tilted>0</tilted></_>
    <_>
      <rects>
        <_>
          21 13 3 10 -1.</_>
        <_>
          21 18 3 5 2.</_></rects>
      <tilted>0</tilted></_>
    <_>
      <rects>
        <_>
          22 3 2 2 -1.</_>
        <_>
          22 4 2 1 2.</_></rects>
      <tilted>0</tilted></_>
    <_>
      <rects>
        <_>
          22 11 1 2 -1.</_>
        <_>
          22 12 1 1 2.</_></rects>
      <tilted>0</tilted></_>
    <_>
      <rects>
        <_>
          23 0 1 12 -1.</_>
        <_>
          23 4 1 4 3.</_></rects>
      <tilted>0</tilted></_>
    <_>
      <rects>
        <_>
          23 1 1 4 -1.</_>
        <_>
          23 3 1 2 2.</_></rects>
      <tilted>0</tilted></_>
    <_>
      <rects>
        <_>
          23 5 1 6 -1.</_>
        <_>
          23 8 1 3 2.</_></rects>
      <tilted>0</tilted></_>
    <_>
      <rects>
        <_>
          23 7 1 6 -1.</_>
        <_>
          23 9 1 2 3.</_></rects>
      <tilted>0</tilted></_>
    <_>
      <rects>
        <_>
          23 7 1 15 -1.</_>
        <_>
          23 12 1 5 3.</_></rects>
      <tilted>0</tilted></_>
    <_>
      <rects>
        <_>
          23 7 1 12 -1.</_>
        <_>
          23 13 1 6 2.</_></rects>
      <tilted>0</tilted></_></features></cascade>
</opencv_storage>
