<?xml version="1.0"?>
<opencv_storage>
<stage5>
  <maxWeakCount>6</maxWeakCount>
  <stageThreshold>-2.8244507312774658e-01</stageThreshold>
  <weakClassifiers>
    <_>
      <internalNodes>
        0 -1 122685 -2.0314864814281464e-02</internalNodes>
      <leafValues>
        5.6462585926055908e-01 -5.1111114025115967e-01</leafValues></_>
    <_>
      <internalNodes>
        0 -1 15340 -2.1972517669200897e-01</internalNodes>
      <leafValues>
        5.2707999944686890e-01 -4.1631886363029480e-01</leafValues></_>
    <_>
      <internalNodes>
        0 -1 8513 -8.8920667767524719e-02</internalNodes>
      <leafValues>
        4.3473219871520996e-01 -5.9189307689666748e-01</leafValues></_>
    <_>
      <internalNodes>
        0 -1 80579 -4.6201148070394993e-03</internalNodes>
      <leafValues>
        6.3793975114822388e-01 -4.5037701725959778e-01</leafValues></_>
    <_>
      <internalNodes>
        0 -1 137368 2.3909728042781353e-04</internalNodes>
      <leafValues>
        3.1328934431076050e-01 -7.0159763097763062e-01</leafValues></_>
    <_>
      <internalNodes>
        0 -1 105910 2.3830347345210612e-04</internalNodes>
      <leafValues>
        3.6971688270568848e-01 -6.4178371429443359e-01</leafValues></_></weakClassifiers></stage5>
</opencv_storage>
