<?xml version="1.0"?>
<opencv_storage>
<stage6>
  <maxWeakCount>7</maxWeakCount>
  <stageThreshold>-8.4458243846893311e-01</stageThreshold>
  <weakClassifiers>
    <_>
      <internalNodes>
        0 -1 89845 -9.6898507326841354e-03</internalNodes>
      <leafValues>
        7.0642203092575073e-01 -3.1250000000000000e-01</leafValues></_>
    <_>
      <internalNodes>
        0 -1 130461 -9.0191587805747986e-03</internalNodes>
      <leafValues>
        4.0065088868141174e-01 -5.8410787582397461e-01</leafValues></_>
    <_>
      <internalNodes>
        0 -1 158336 1.2182669714093208e-02</internalNodes>
      <leafValues>
        -3.4117856621742249e-01 7.2612273693084717e-01</leafValues></_>
    <_>
      <internalNodes>
        0 -1 12059 -2.3528426885604858e-02</internalNodes>
      <leafValues>
        4.3641617894172668e-01 -5.4412084817886353e-01</leafValues></_>
    <_>
      <internalNodes>
        0 -1 37258 6.1449588974937797e-04</internalNodes>
      <leafValues>
        3.2367447018623352e-01 -5.7587361335754395e-01</leafValues></_>
    <_>
      <internalNodes>
        0 -1 48976 -1.0304938768967986e-04</internalNodes>
      <leafValues>
        -6.3581097126007080e-01 3.0793589353561401e-01</leafValues></_>
    <_>
      <internalNodes>
        0 -1 89762 -4.4898569467477500e-04</internalNodes>
      <leafValues>
        -7.7035766839981079e-01 2.6470261812210083e-01</leafValues></_></weakClassifiers></stage6>
</opencv_storage>
