<?xml version="1.0"?>
<opencv_storage>
<stage3>
  <maxWeakCount>6</maxWeakCount>
  <stageThreshold>-5.2498817443847656e-01</stageThreshold>
  <weakClassifiers>
    <_>
      <internalNodes>
        0 -1 83292 -1.7018884420394897e-02</internalNodes>
      <leafValues>
        5.4037266969680786e-01 -6.5789473056793213e-01</leafValues></_>
    <_>
      <internalNodes>
        0 -1 153854 1.2595011852681637e-02</internalNodes>
      <leafValues>
        -4.3459525704383850e-01 6.3643735647201538e-01</leafValues></_>
    <_>
      <internalNodes>
        0 -1 1230 -1.4357517473399639e-02</internalNodes>
      <leafValues>
        7.0493161678314209e-01 -3.8581424951553345e-01</leafValues></_>
    <_>
      <internalNodes>
        0 -1 112165 -5.5811158381402493e-04</internalNodes>
      <leafValues>
        -9.2488855123519897e-01 3.0046322941780090e-01</leafValues></_>
    <_>
      <internalNodes>
        0 -1 84012 -6.5488629043102264e-03</internalNodes>
      <leafValues>
        3.4750699996948242e-01 -6.5052133798599243e-01</leafValues></_>
    <_>
      <internalNodes>
        0 -1 69561 -1.0273972293362021e-04</internalNodes>
      <leafValues>
        -6.2637513875961304e-01 3.0534583330154419e-01</leafValues></_></weakClassifiers></stage3>
</opencv_storage>
