<?xml version="1.0"?>
<opencv_storage>
<stage9>
  <maxWeakCount>7</maxWeakCount>
  <stageThreshold>-5.7691949605941772e-01</stageThreshold>
  <weakClassifiers>
    <_>
      <internalNodes>
        0 -1 6305 -1.0471603274345398e-01</internalNodes>
      <leafValues>
        4.7928994894027710e-01 -6.4705884456634521e-01</leafValues></_>
    <_>
      <internalNodes>
        0 -1 143838 8.2104402827098966e-04</internalNodes>
      <leafValues>
        3.0581060051918030e-01 -7.2884166240692139e-01</leafValues></_>
    <_>
      <internalNodes>
        0 -1 1328 -3.7416424602270126e-02</internalNodes>
      <leafValues>
        7.6493483781814575e-01 -3.3081609010696411e-01</leafValues></_>
    <_>
      <internalNodes>
        0 -1 162000 -5.7779892813414335e-04</internalNodes>
      <leafValues>
        -8.4440976381301880e-01 2.5654253363609314e-01</leafValues></_>
    <_>
      <internalNodes>
        0 -1 121244 4.5868178131058812e-04</internalNodes>
      <leafValues>
        3.3083817362785339e-01 -6.0855227708816528e-01</leafValues></_>
    <_>
      <internalNodes>
        0 -1 114421 -8.4501807577908039e-04</internalNodes>
      <leafValues>
        -7.8555756807327271e-01 2.4278034269809723e-01</leafValues></_>
    <_>
      <internalNodes>
        0 -1 111814 6.6394091118127108e-04</internalNodes>
      <leafValues>
        2.6792529225349426e-01 -7.3844087123870850e-01</leafValues></_></weakClassifiers></stage9>
</opencv_storage>
