<?xml version="1.0"?>
<opencv_storage>
<stage6>
  <maxWeakCount>5</maxWeakCount>
  <stageThreshold>-2.1018256247043610e-01</stageThreshold>
  <weakClassifiers>
    <_>
      <internalNodes>
        0 -1 6070 3.9716929197311401e-02</internalNodes>
      <leafValues>
        -8.1333333253860474e-01 5.8709675073623657e-01</leafValues></_>
    <_>
      <internalNodes>
        0 -1 147176 4.4623203575611115e-02</internalNodes>
      <leafValues>
        -4.3835502862930298e-01 8.7066864967346191e-01</leafValues></_>
    <_>
      <internalNodes>
        0 -1 42428 7.9718172550201416e-02</internalNodes>
      <leafValues>
        -3.2147330045700073e-01 9.3174988031387329e-01</leafValues></_>
    <_>
      <internalNodes>
        0 -1 157869 2.6812916621565819e-03</internalNodes>
      <leafValues>
        4.4635003805160522e-01 -7.7932578325271606e-01</leafValues></_>
    <_>
      <internalNodes>
        0 -1 126240 -1.8671803176403046e-02</internalNodes>
      <leafValues>
        9.1662907600402832e-01 -3.7369513511657715e-01</leafValues></_></weakClassifiers></stage6>
</opencv_storage>
