<?xml version="1.0"?>
<opencv_storage>
<stage19>
  <maxWeakCount>7</maxWeakCount>
  <stageThreshold>-5.3913605213165283e-01</stageThreshold>
  <weakClassifiers>
    <_>
      <internalNodes>
        0 -1 83687 3.1710183247923851e-03</internalNodes>
      <leafValues>
        -3.6263737082481384e-01 4.7945204377174377e-01</leafValues></_>
    <_>
      <internalNodes>
        0 -1 145064 -1.9863788038492203e-03</internalNodes>
      <leafValues>
        6.7490124702453613e-01 -2.3694397509098053e-01</leafValues></_>
    <_>
      <internalNodes>
        0 -1 67856 -2.4049051105976105e-02</internalNodes>
      <leafValues>
        -9.2213898897171021e-01 1.9231872260570526e-01</leafValues></_>
    <_>
      <internalNodes>
        0 -1 120046 -1.2985197827219963e-03</internalNodes>
      <leafValues>
        7.3302602767944336e-01 -2.7111032605171204e-01</leafValues></_>
    <_>
      <internalNodes>
        0 -1 125773 -2.0245164632797241e-03</internalNodes>
      <leafValues>
        -7.4449938535690308e-01 2.5459337234497070e-01</leafValues></_>
    <_>
      <internalNodes>
        0 -1 151034 8.6013000691309571e-04</internalNodes>
      <leafValues>
        -3.4480103850364685e-01 5.5256932973861694e-01</leafValues></_>
    <_>
      <internalNodes>
        0 -1 108013 2.8347998159006238e-04</internalNodes>
      <leafValues>
        3.1669202446937561e-01 -6.4821666479110718e-01</leafValues></_></weakClassifiers></stage19>
</opencv_storage>
