<?xml version="1.0"?>
<opencv_storage>
<stage10>
  <maxWeakCount>6</maxWeakCount>
  <stageThreshold>-3.9542070031166077e-01</stageThreshold>
  <weakClassifiers>
    <_>
      <internalNodes>
        0 -1 152849 2.9398733749985695e-02</internalNodes>
      <leafValues>
        -3.3980581164360046e-01 5.3731346130371094e-01</leafValues></_>
    <_>
      <internalNodes>
        0 -1 105290 2.2942170500755310e-02</internalNodes>
      <leafValues>
        2.7755013108253479e-01 -7.9074782133102417e-01</leafValues></_>
    <_>
      <internalNodes>
        0 -1 60770 8.8079310953617096e-03</internalNodes>
      <leafValues>
        -3.5822430253028870e-01 5.3896105289459229e-01</leafValues></_>
    <_>
      <internalNodes>
        0 -1 131565 -4.5166077325120568e-04</internalNodes>
      <leafValues>
        -7.3429870605468750e-01 2.4884828925132751e-01</leafValues></_>
    <_>
      <internalNodes>
        0 -1 160128 -1.5825313748791814e-03</internalNodes>
      <leafValues>
        6.8840819597244263e-01 -3.5560354590415955e-01</leafValues></_>
    <_>
      <internalNodes>
        0 -1 60370 4.1802131454460323e-04</internalNodes>
      <leafValues>
        3.9393854141235352e-01 -5.7419210672378540e-01</leafValues></_></weakClassifiers></stage10>
</opencv_storage>
