<?xml version="1.0"?>
<opencv_storage>
<stage7>
  <maxWeakCount>7</maxWeakCount>
  <stageThreshold>-3.1675177812576294e-01</stageThreshold>
  <weakClassifiers>
    <_>
      <internalNodes>
        0 -1 1299 -3.0317429453134537e-02</internalNodes>
      <leafValues>
        7.8571426868438721e-01 -1.8954248726367950e-01</leafValues></_>
    <_>
      <internalNodes>
        0 -1 146849 -8.2950654905289412e-04</internalNodes>
      <leafValues>
        -6.2314277887344360e-01 3.4821557998657227e-01</leafValues></_>
    <_>
      <internalNodes>
        0 -1 121489 6.4241206273436546e-03</internalNodes>
      <leafValues>
        -3.5087487101554871e-01 5.8570110797882080e-01</leafValues></_>
    <_>
      <internalNodes>
        0 -1 13224 -3.4490216057747602e-04</internalNodes>
      <leafValues>
        -5.1891583204269409e-01 4.6657413244247437e-01</leafValues></_>
    <_>
      <internalNodes>
        0 -1 84286 2.1299854852259159e-03</internalNodes>
      <leafValues>
        -4.8299485445022583e-01 4.7849074006080627e-01</leafValues></_>
    <_>
      <internalNodes>
        0 -1 51303 4.3079461902379990e-03</internalNodes>
      <leafValues>
        -3.1762039661407471e-01 8.9464402198791504e-01</leafValues></_>
    <_>
      <internalNodes>
        0 -1 25901 9.5709168817847967e-04</internalNodes>
      <leafValues>
        3.7807729840278625e-01 -7.0308047533035278e-01</leafValues></_></weakClassifiers></stage7>
</opencv_storage>
