<?xml version="1.0"?>
<opencv_storage>
<stage18>
  <maxWeakCount>7</maxWeakCount>
  <stageThreshold>-6.0254633426666260e-01</stageThreshold>
  <weakClassifiers>
    <_>
      <internalNodes>
        0 -1 50773 5.7366758584976196e-02</internalNodes>
      <leafValues>
        -1.5337423980236053e-01 8.2089549303054810e-01</leafValues></_>
    <_>
      <internalNodes>
        0 -1 71252 -7.9853588249534369e-04</internalNodes>
      <leafValues>
        4.0134140849113464e-01 -5.5837124586105347e-01</leafValues></_>
    <_>
      <internalNodes>
        0 -1 154927 -3.1208491418510675e-04</internalNodes>
      <leafValues>
        4.3991318345069885e-01 -5.6598496437072754e-01</leafValues></_>
    <_>
      <internalNodes>
        0 -1 56749 1.4006797224283218e-02</internalNodes>
      <leafValues>
        -4.8145213723182678e-01 5.3992003202438354e-01</leafValues></_>
    <_>
      <internalNodes>
        0 -1 98746 1.7354697920382023e-03</internalNodes>
      <leafValues>
        3.4441146254539490e-01 -6.6569876670837402e-01</leafValues></_>
    <_>
      <internalNodes>
        0 -1 108610 -6.1552524566650391e-03</internalNodes>
      <leafValues>
        8.3320361375808716e-01 -2.9587039351463318e-01</leafValues></_>
    <_>
      <internalNodes>
        0 -1 37927 1.1352097615599632e-02</internalNodes>
      <leafValues>
        3.0958986282348633e-01 -8.7298965454101562e-01</leafValues></_></weakClassifiers></stage18>
</opencv_storage>
