<?xml version="1.0"?>
<opencv_storage>
<stage11>
  <maxWeakCount>5</maxWeakCount>
  <stageThreshold>-5.1686096191406250e-01</stageThreshold>
  <weakClassifiers>
    <_>
      <internalNodes>
        0 -1 11459 -1.1569351702928543e-01</internalNodes>
      <leafValues>
        6.2406015396118164e-01 -5.4639172554016113e-01</leafValues></_>
    <_>
      <internalNodes>
        0 -1 155942 -1.8462054431438446e-03</internalNodes>
      <leafValues>
        -7.4458295106887817e-01 4.2775824666023254e-01</leafValues></_>
    <_>
      <internalNodes>
        0 -1 98419 7.8280512243509293e-03</internalNodes>
      <leafValues>
        2.8781253099441528e-01 -8.9410960674285889e-01</leafValues></_>
    <_>
      <internalNodes>
        0 -1 80696 1.7723375931382179e-03</internalNodes>
      <leafValues>
        2.0853373408317566e-01 -1.</leafValues></_>
    <_>
      <internalNodes>
        0 -1 49637 9.2600507196038961e-04</internalNodes>
      <leafValues>
        2.8734844923019409e-01 -8.3038300275802612e-01</leafValues></_></weakClassifiers></stage11>
</opencv_storage>
