<?xml version="1.0"?>
<opencv_storage>
<stage9>
  <maxWeakCount>6</maxWeakCount>
  <stageThreshold>-3.8959506154060364e-01</stageThreshold>
  <weakClassifiers>
    <_>
      <internalNodes>
        0 -1 66858 5.1660813391208649e-02</internalNodes>
      <leafValues>
        -3.1468531489372253e-01 8.6206895112991333e-01</leafValues></_>
    <_>
      <internalNodes>
        0 -1 151127 -1.6274820081889629e-03</internalNodes>
      <leafValues>
        4.6733003854751587e-01 -7.0969200134277344e-01</leafValues></_>
    <_>
      <internalNodes>
        0 -1 44458 3.5710766911506653e-02</internalNodes>
      <leafValues>
        -3.3433112502098083e-01 8.8695853948593140e-01</leafValues></_>
    <_>
      <internalNodes>
        0 -1 162193 -1.8384936265647411e-04</internalNodes>
      <leafValues>
        -7.9478144645690918e-01 3.8551843166351318e-01</leafValues></_>
    <_>
      <internalNodes>
        0 -1 159983 -7.4072030838578939e-04</internalNodes>
      <leafValues>
        -8.7360161542892456e-01 3.4871575236320496e-01</leafValues></_>
    <_>
      <internalNodes>
        0 -1 162122 6.3074741046875715e-04</internalNodes>
      <leafValues>
        2.8017452359199524e-01 -9.3636322021484375e-01</leafValues></_></weakClassifiers></stage9>
</opencv_storage>
