<?xml version="1.0"?>
<opencv_storage>
<stage13>
  <maxWeakCount>7</maxWeakCount>
  <stageThreshold>-7.2407037019729614e-01</stageThreshold>
  <weakClassifiers>
    <_>
      <internalNodes>
        0 -1 131924 4.8715822398662567e-02</internalNodes>
      <leafValues>
        -3.4959349036216736e-01 6.8224298954010010e-01</leafValues></_>
    <_>
      <internalNodes>
        0 -1 47758 -2.2840891033411026e-02</internalNodes>
      <leafValues>
        3.4103319048881531e-01 -8.2010924816131592e-01</leafValues></_>
    <_>
      <internalNodes>
        0 -1 161447 4.0388078195974231e-04</internalNodes>
      <leafValues>
        3.3919519186019897e-01 -7.6682758331298828e-01</leafValues></_>
    <_>
      <internalNodes>
        0 -1 77840 -6.3326791860163212e-03</internalNodes>
      <leafValues>
        8.2633846998214722e-01 -4.1369816660881042e-01</leafValues></_>
    <_>
      <internalNodes>
        0 -1 162222 -5.8898061979562044e-04</internalNodes>
      <leafValues>
        -9.2471677064895630e-01 3.3445054292678833e-01</leafValues></_>
    <_>
      <internalNodes>
        0 -1 77479 4.9635499715805054e-02</internalNodes>
      <leafValues>
        -3.1327825784683228e-01 9.4902557134628296e-01</leafValues></_>
    <_>
      <internalNodes>
        0 -1 59970 -3.2000377541407943e-04</internalNodes>
      <leafValues>
        -5.6434363126754761e-01 4.9896305799484253e-01</leafValues></_></weakClassifiers></stage13>
</opencv_storage>
