<?xml version="1.0"?>
<opencv_storage>
<stage1>
  <maxWeakCount>6</maxWeakCount>
  <stageThreshold>-4.7786718606948853e-01</stageThreshold>
  <weakClassifiers>
    <_>
      <internalNodes>
        0 -1 64871 -3.1551430001854897e-03</internalNodes>
      <leafValues>
        5.1445084810256958e-01 -8.1250000000000000e-01</leafValues></_>
    <_>
      <internalNodes>
        0 -1 5200 -1.3450021855533123e-02</internalNodes>
      <leafValues>
        5.2220582962036133e-01 -7.2325998544692993e-01</leafValues></_>
    <_>
      <internalNodes>
        0 -1 141190 -2.6001874357461929e-02</internalNodes>
      <leafValues>
        8.6347788572311401e-01 -3.9725494384765625e-01</leafValues></_>
    <_>
      <internalNodes>
        0 -1 83051 1.0157216340303421e-02</internalNodes>
      <leafValues>
        -3.3890980482101440e-01 7.2060221433639526e-01</leafValues></_>
    <_>
      <internalNodes>
        0 -1 162045 2.8866139473393559e-04</internalNodes>
      <leafValues>
        3.1692770123481750e-01 -8.4340906143188477e-01</leafValues></_>
    <_>
      <internalNodes>
        0 -1 22383 2.9186117462813854e-03</internalNodes>
      <leafValues>
        3.3248871564865112e-01 -8.9092648029327393e-01</leafValues></_></weakClassifiers></stage1>
</opencv_storage>
