<?xml version="1.0"?>
<opencv_storage>
<stage8>
  <maxWeakCount>6</maxWeakCount>
  <stageThreshold>-1.1787725687026978e+00</stageThreshold>
  <weakClassifiers>
    <_>
      <internalNodes>
        0 -1 107345 -1.0790348052978516e-01</internalNodes>
      <leafValues>
        5.3020131587982178e-01 -4.7727271914482117e-01</leafValues></_>
    <_>
      <internalNodes>
        0 -1 127760 -1.3038227334618568e-03</internalNodes>
      <leafValues>
        -7.8879624605178833e-01 2.8550055623054504e-01</leafValues></_>
    <_>
      <internalNodes>
        0 -1 62850 -1.6375748673453927e-03</internalNodes>
      <leafValues>
        8.4948050975799561e-01 -2.9050856828689575e-01</leafValues></_>
    <_>
      <internalNodes>
        0 -1 50300 -1.4146638568490744e-03</internalNodes>
      <leafValues>
        4.3797975778579712e-01 -5.1800221204757690e-01</leafValues></_>
    <_>
      <internalNodes>
        0 -1 146849 6.1242934316396713e-04</internalNodes>
      <leafValues>
        3.5363242030143738e-01 -7.2735512256622314e-01</leafValues></_>
    <_>
      <internalNodes>
        0 -1 897 -1.4679889380931854e-01</internalNodes>
      <leafValues>
        5.0477921962738037e-01 -5.3212201595306396e-01</leafValues></_></weakClassifiers></stage8>
</opencv_storage>
