<?xml version="1.0"?>
<opencv_storage>
<stage17>
  <maxWeakCount>5</maxWeakCount>
  <stageThreshold>-4.2262455821037292e-01</stageThreshold>
  <weakClassifiers>
    <_>
      <internalNodes>
        0 -1 3222 1.1169770732522011e-02</internalNodes>
      <leafValues>
        3.2653060555458069e-01 -1.</leafValues></_>
    <_>
      <internalNodes>
        0 -1 55021 3.8430728018283844e-02</internalNodes>
      <leafValues>
        -3.3664846420288086e-01 6.6290122270584106e-01</leafValues></_>
    <_>
      <internalNodes>
        0 -1 137561 -3.6484889686107635e-02</internalNodes>
      <leafValues>
        3.0345031619071960e-01 -8.0627214908599854e-01</leafValues></_>
    <_>
      <internalNodes>
        0 -1 89814 1.1044219136238098e-03</internalNodes>
      <leafValues>
        1.5861436724662781e-01 -8.3980989456176758e-01</leafValues></_>
    <_>
      <internalNodes>
        0 -1 121187 -5.4161555453902110e-05</internalNodes>
      <leafValues>
        2.3515109717845917e-01 -7.0524930953979492e-01</leafValues></_></weakClassifiers></stage17>
</opencv_storage>
