<?xml version="1.0"?>
<opencv_storage>
<stage13>
  <maxWeakCount>5</maxWeakCount>
  <stageThreshold>-4.9149432778358459e-01</stageThreshold>
  <weakClassifiers>
    <_>
      <internalNodes>
        0 -1 1048 -5.4241782054305077e-03</internalNodes>
      <leafValues>
        4.6428570151329041e-01 -5.9420287609100342e-01</leafValues></_>
    <_>
      <internalNodes>
        0 -1 153352 5.8877462288364768e-04</internalNodes>
      <leafValues>
        -4.3025070428848267e-01 5.4879826307296753e-01</leafValues></_>
    <_>
      <internalNodes>
        0 -1 98134 -1.7127350438386202e-03</internalNodes>
      <leafValues>
        5.5414372682571411e-01 -4.2259129881858826e-01</leafValues></_>
    <_>
      <internalNodes>
        0 -1 110710 -4.8189988592639565e-04</internalNodes>
      <leafValues>
        4.0075728297233582e-01 -5.3633046150207520e-01</leafValues></_>
    <_>
      <internalNodes>
        0 -1 111135 -7.5122748967260122e-04</internalNodes>
      <leafValues>
        5.1514601707458496e-01 -4.5606738328933716e-01</leafValues></_></weakClassifiers></stage13>
</opencv_storage>
