<?xml version="1.0"?>
<opencv_storage>
<stage3>
  <maxWeakCount>5</maxWeakCount>
  <stageThreshold>-4.3591207265853882e-01</stageThreshold>
  <weakClassifiers>
    <_>
      <internalNodes>
        0 -1 39741 3.0191682279109955e-02</internalNodes>
      <leafValues>
        -8.5714286565780640e-01 6.9863015413284302e-01</leafValues></_>
    <_>
      <internalNodes>
        0 -1 147327 -3.0643209815025330e-02</internalNodes>
      <leafValues>
        8.2112991809844971e-01 -5.7070916891098022e-01</leafValues></_>
    <_>
      <internalNodes>
        0 -1 50621 1.2685477733612061e-02</internalNodes>
      <leafValues>
        -5.5264782905578613e-01 7.1088397502899170e-01</leafValues></_>
    <_>
      <internalNodes>
        0 -1 66310 -2.4487633258104324e-02</internalNodes>
      <leafValues>
        7.6601660251617432e-01 -5.1542448997497559e-01</leafValues></_>
    <_>
      <internalNodes>
        0 -1 116085 -2.8338881675153971e-03</internalNodes>
      <leafValues>
        7.9648047685623169e-01 -5.6984776258468628e-01</leafValues></_></weakClassifiers></stage3>
</opencv_storage>
