<?xml version="1.0"?>
<opencv_storage>
<stage14>
  <maxWeakCount>5</maxWeakCount>
  <stageThreshold>-6.2816756963729858e-01</stageThreshold>
  <weakClassifiers>
    <_>
      <internalNodes>
        0 -1 250 9.8475767299532890e-03</internalNodes>
      <leafValues>
        3.5483869910240173e-01 -8.1818181276321411e-01</leafValues></_>
    <_>
      <internalNodes>
        0 -1 72572 -1.1950878426432610e-02</internalNodes>
      <leafValues>
        3.8906759023666382e-01 -5.7894819974899292e-01</leafValues></_>
    <_>
      <internalNodes>
        0 -1 9454 3.9661955088376999e-03</internalNodes>
      <leafValues>
        2.8216588497161865e-01 -8.7983006238937378e-01</leafValues></_>
    <_>
      <internalNodes>
        0 -1 47589 -2.9126815497875214e-03</internalNodes>
      <leafValues>
        3.3524510264396667e-01 -6.1123377084732056e-01</leafValues></_>
    <_>
      <internalNodes>
        0 -1 89647 -1.5907257329672575e-03</internalNodes>
      <leafValues>
        3.4553161263465881e-01 -5.7231110334396362e-01</leafValues></_></weakClassifiers></stage14>
</opencv_storage>
