<?xml version="1.0"?>
<opencv_storage>
<stage12>
  <maxWeakCount>5</maxWeakCount>
  <stageThreshold>-5.2616071701049805e-01</stageThreshold>
  <weakClassifiers>
    <_>
      <internalNodes>
        0 -1 161395 -1.4737654477357864e-02</internalNodes>
      <leafValues>
        -9.5121949911117554e-01 3.6507937312126160e-01</leafValues></_>
    <_>
      <internalNodes>
        0 -1 12060 3.3520601689815521e-02</internalNodes>
      <leafValues>
        -6.8453693389892578e-01 3.1101715564727783e-01</leafValues></_>
    <_>
      <internalNodes>
        0 -1 106572 -1.3669519685208797e-03</internalNodes>
      <leafValues>
        -9.4127255678176880e-01 2.3371252417564392e-01</leafValues></_>
    <_>
      <internalNodes>
        0 -1 5845 -2.3176239337772131e-03</internalNodes>
      <leafValues>
        -8.9228892326354980e-01 2.1863353252410889e-01</leafValues></_>
    <_>
      <internalNodes>
        0 -1 95647 5.3903646767139435e-03</internalNodes>
      <leafValues>
        -3.3830443024635315e-01 7.8134739398956299e-01</leafValues></_></weakClassifiers></stage12>
</opencv_storage>
