<?xml version="1.0"?>
<opencv_storage>
<stage16>
  <maxWeakCount>5</maxWeakCount>
  <stageThreshold>-1.0692715644836426e+00</stageThreshold>
  <weakClassifiers>
    <_>
      <internalNodes>
        0 -1 81002 -4.8705465160310268e-03</internalNodes>
      <leafValues>
        -1. 3.4715026617050171e-01</leafValues></_>
    <_>
      <internalNodes>
        0 -1 146569 -5.9915512800216675e-02</internalNodes>
      <leafValues>
        4.0890443325042725e-01 -6.2757581472396851e-01</leafValues></_>
    <_>
      <internalNodes>
        0 -1 2245 8.5542444139719009e-03</internalNodes>
      <leafValues>
        3.3865237236022949e-01 -7.8448396921157837e-01</leafValues></_>
    <_>
      <internalNodes>
        0 -1 153404 -1.0446195956319571e-03</internalNodes>
      <leafValues>
        -6.6775971651077271e-01 3.9105367660522461e-01</leafValues></_>
    <_>
      <internalNodes>
        0 -1 51041 -8.8777150958776474e-03</internalNodes>
      <leafValues>
        5.7971876859664917e-01 -4.5973861217498779e-01</leafValues></_></weakClassifiers></stage16>
</opencv_storage>
