<?xml version="1.0"?>
<opencv_storage>
<stage10>
  <maxWeakCount>5</maxWeakCount>
  <stageThreshold>-4.6443828940391541e-01</stageThreshold>
  <weakClassifiers>
    <_>
      <internalNodes>
        0 -1 143307 2.1153103560209274e-02</internalNodes>
      <leafValues>
        -5.5319148302078247e-01 6.0294115543365479e-01</leafValues></_>
    <_>
      <internalNodes>
        0 -1 51134 6.4135715365409851e-02</internalNodes>
      <leafValues>
        -5.9867262840270996e-01 6.3275486230850220e-01</leafValues></_>
    <_>
      <internalNodes>
        0 -1 106 9.3911243602633476e-03</internalNodes>
      <leafValues>
        3.2411244511604309e-01 -9.0527331829071045e-01</leafValues></_>
    <_>
      <internalNodes>
        0 -1 118511 -2.7640029788017273e-02</internalNodes>
      <leafValues>
        7.7800780534744263e-01 -4.0955752134323120e-01</leafValues></_>
    <_>
      <internalNodes>
        0 -1 111477 -2.7785021811723709e-03</internalNodes>
      <leafValues>
        7.7287089824676514e-01 -3.2204061746597290e-01</leafValues></_></weakClassifiers></stage10>
</opencv_storage>
